svm_type c_svc
kernel_type polynomial
degree 3
gamma 0.8
coef0 10.0
nr_class 2
total_sv 2
rho -2.0186747393962623
label 1 0
nr_sv 1 1
SV
0.02565161951916031 1:0.230769230769231 2:0.0804797306508295 3:0.103448275862069 4:0.307692307692308 5:0.692307692307692 
-0.02565161951916031 1:0.0102040816326531 2:0.00702047705546885 3:0.0967741935483871 4:0.76530612244898 5:0.785714285714286 
